20 19
0.0867579908676 0.0456621004566 0.00913242009132 0.0456621004566 0.0821917808219 0.0913242009132 0.0593607305936 0.0228310502283 0.0639269406393 0.0547945205479 0.0684931506849 0.0867579908676 0.00456621004566 0.0319634703196 0.0593607305936 0.00913242009132 0.0547945205479 0.0365296803653 0.027397260274 0.0593607305936
